[-0.41292194  0.20371177 -0.05311119 -0.13578451  0.06183674 -0.38448605
 -0.44855382 -0.51263473  0.24648405  0.30055977]
[ 0.21819763 -0.19078367 -0.21231328 -0.12924403  0.5890337  -0.16774457
 -0.46975586 -0.22353314  0.32565124 -0.32003926]
[ 0.21819719 -0.19078382 -0.21231358 -0.12924376  0.58903375 -0.16774419
 -0.46975622 -0.22353264  0.32565146 -0.32003911]
[ 0.14718251 -0.19249002 -0.29783576 -0.10355117  0.60608387 -0.0943507
 -0.5128578  -0.1286349   0.34214    -0.26265256]
[-1.40471632e-01 -3.80534060e-01 -4.13989598e-01  4.99710387e-02
  3.48008559e-01  7.23959702e-07 -4.13936586e-01 -1.03003144e-03
  6.01174810e-01 -8.78145205e-02]
[-1.40471632e-01 -3.80534060e-01 -4.13989598e-01  4.99710387e-02
  3.48008559e-01  7.23961115e-07 -4.13936586e-01 -1.03003144e-03
  6.01174811e-01 -8.78145205e-02]
[-1.40471632e-01 -3.80534060e-01 -4.13989597e-01  4.99710391e-02
  3.48008559e-01  7.23961057e-07 -4.13936586e-01 -1.03003144e-03
  6.01174810e-01 -8.78145210e-02]
[-3.01505433e-01 -3.31563745e-01 -3.87344488e-01  1.73531811e-01
  5.07684778e-01  1.07690616e-06 -5.51073883e-01 -5.22412060e-04
  1.29621369e-01  2.01947233e-01]
