[-0.26275824  0.03635492  0.09312051  0.00469211 -0.18295909  0.6987476
 -0.59225824 -0.2201157 ]
[-0.22397971  0.01060904  0.06236204 -0.00487983 -0.26801642  0.70918905
 -0.52137895 -0.3149441 ]
[-0.22397964  0.01060892  0.06236202 -0.00487983 -0.26801653  0.70918906
 -0.52137875 -0.31494435]
[-0.24522513 -0.01291334  0.03647793  0.00817962 -0.41497575  0.73440883
 -0.4328387  -0.19846865]
[-0.24522111 -0.0129162   0.03647649  0.00817995 -0.41497412  0.73440947
 -0.43283697 -0.19847846]
[-0.24522297 -0.01291521  0.03647728  0.00817986 -0.41497474  0.73440926
 -0.43283758 -0.19847423]
[-0.24521838 -0.01291873  0.03647596  0.00817794 -0.41497296  0.73440999
 -0.43283568 -0.19848517]
[-0.24522602 -0.01291318  0.03647819  0.00817987 -0.41497589  0.734409
 -0.43283907 -0.19846576]
[-0.13953811 -0.02684683 -0.01577561 -0.03275302 -0.41039714  0.7202966
 -0.43927188 -0.31348675]
[-0.13953912 -0.02684686 -0.01577527 -0.03275259 -0.41039799  0.72029687
 -0.43927126 -0.31348551]
[-0.13954165 -0.02684694 -0.01577443 -0.03275153 -0.41040009  0.72029752
 -0.43926972 -0.31348242]
[-0.13954345 -0.02684699 -0.01577383 -0.03275077 -0.41040159  0.72029799
 -0.43926863 -0.31348021]
[-0.13954366 -0.02684699 -0.01577376 -0.03275069 -0.41040176  0.72029805
 -0.43926851 -0.31347996]
[-0.11583147 -0.05757926 -0.02171687 -0.03670675 -0.39988757  0.73073032
 -0.44960542 -0.29227862]
[-0.11583152 -0.05757942 -0.02171662 -0.03670691 -0.39988746  0.73073024
 -0.44960536 -0.29227902]
[-0.11583145 -0.05757986 -0.0217164  -0.03670705 -0.39988734  0.73073029
 -0.44960532 -0.29227904]
[-0.1158317  -0.05757431 -0.02171875 -0.03670587 -0.39988766  0.73072918
 -0.44960636 -0.29228075]
[-0.11583171 -0.0575743  -0.02171874 -0.03670588 -0.39988766  0.73072917
 -0.44960636 -0.29228078]
[-0.11583171 -0.05757424 -0.02171876 -0.03670588 -0.39988765  0.73072915
 -0.44960637 -0.29228084]
